{
    "inputSize": 784,
    "layers": [
        {
            "layer": {
                "actFunc": "Sigmoid",
                "inputSize": 784,
                "learningRate": 0.01,
                "neurons": [
                    {
                        "bias": -0.39452943125185197,
                        "weights": [
                            -0.39452943125185197,
                            0.16376056630998304,
                            0.15561166806986648,
                            0.2439480852856035,
                            0.1821362214122636,
                            -0.21233660781253644,
                            -0.009086033650349722,
                            0.10888480582824107,
                            0.26109795931068974,
                            0.0902777588995389,
                            0.27366798076500914,
                            0.19079153947235902,
                            -0.1332825644753537,
                            -0.26199039820059866,
                            -0.2162765099611615,
                            0.08915617153000037,
                            0.25445932981343405,
                            0.2796658578344292,
                            0.26034110291314055,
                            -0.13860500769311565,
                            -0.1264162312337595,
                            0.1678143445586923,
                            0.11505972651540534,
                            -0.18724387114020305,
                            0.18616420785211962,
                            0.1618670230188939,
                            -0.2769216335081098,
                            -0.10245485310422787,
                            -0.00198658776601321,
                            0.21385803400164066,
                            0.17026523698212154,
                            0.1460327431359339,
                            -0.08245244337149864,
                            -0.25430452188036223,
                            0.00685465605807459,
                            0.1415158627735608,
                            0.0030088197238040157,
                            0.1950685402541818,
                            0.26016838386549035,
                            0.18054696119237004,
                            0.12498521208411023,
                            0.028755317253294103,
                            0.11305100182197993,
                            0.20612998925119663,
                            -0.20211619211251497,
                            -0.02718667289157679,
                            -0.2419355988352718,
                            -0.0414090095012298,
                            -0.09763525658481495,
                            0.10829163682761138,
                            0.17245131414257237,
                            0.19814619782565912,
                            0.09949767311366811,
                            0.02408304234250969,
                            -0.13955336478259509,
                            -0.2963879168035006,
                            -0.08467552747770155,
                            0.05038082794759017,
                            0.16379128262350653,
                            -0.2909944173107646,
                            0.07086637829780071,
                            0.14504388828518527,
                            -0.2097531545728647,
                            -0.26941687603296544,
                            -0.029980700848637278,
                            0.32864518591964664,
                            0.257390588786625,
                            -0.02967530803540518,
                            0.3434254710634909,
                            0.056090706267000474,
                            0.02580343193280413,
                            0.2126202761851736,
                            0.00041074183493444944,
                            0.40330322102911864,
                            -0.09287672266403788,
                            -0.16274377001094992,
                            -0.028172438488318633,
                            -0.19333146767551784,
                            -0.25918225341931445,
                            0.01581683195818745,
                            0.29143993343082447,
                            -0.02152960536077544,
                            0.19074166510393054,
                            0.03355578884443127,
                            0.0010879275379871022,
                            0.09163357970890243,
                            0.027705306314372367,
                            0.03454894728263653,
                            0.07965419274706084,
                            0.07494904480909982,
                            -0.05343786412705782,
                            0.12831520020096998,
                            0.15661768571942933,
                            -0.15047470802506557,
                            0.2947899105052916,
                            0.12065882274177407,
                            -0.2541380677463667,
                            0.2275096479892327,
                            0.04568640502903532,
                            0.2139366700749759,
                            0.38783959964269754,
                            0.4166298964852006,
                            -0.001003127593319278,
                            0.30514463307517375,
                            0.034598681001926014,
                            0.1826945753199641,
                            -0.08326686127783993,
                            0.08019920386212699,
                            0.05908532222777992,
                            0.18886007561893073,
                            0.11035673730936238,
                            -0.106190927110667,
                            0.03352164086762372,
                            -0.2751070288153086,
                            -0.0023769928664650317,
                            0.17073448201299227,
                            -0.2462655182174265,
                            0.1116935206378009,
                            -0.25587532560006543,
                            0.024229763149937234,
                            0.3006609536372369,
                            -0.08066288480277344,
                            0.0915681469327085,
                            0.24912017304477266,
                            0.08512039790585414,
                            0.18956006290047434,
                            0.2653911560354903,
                            -0.03831921353413363,
                            0.1789665666117856,
                            -0.10454367598018843,
                            0.18411664773665806,
                            0.25334109851191877,
                            -0.07714054943327903,
                            0.07595134048050846,
                            0.15167519119477121,
                            -0.0009621162054423572,
                            0.2119079800723304,
                            -0.03384086134588494,
                            -0.2945375049994651,
                            -0.19152686920689294,
                            -0.2259604094095594,
                            -0.03406067359102112,
                            0.143464290016617,
                            0.12033586268176225,
                            -0.20143591117369403,
                            -0.17735536591763704,
                            -0.2348098820820876,
                            0.037406809898337993,
                            0.006818777240094296,
                            -0.1271477489857637,
                            0.0543738659860249,
                            0.024531441625617094,
                            0.1841113177099529,
                            -0.0909115755415823,
                            0.20497161667849922,
                            0.1585703565840556,
                            -0.2565450763623774,
                            -0.25045453778128857,
                            -0.09983605458737338,
                            -0.21740739825737576,
                            -0.24373882288077622,
                            0.03680626307938143,
                            -0.20030292257725346,
                            0.07414164911229282,
                            0.08365499766818023,
                            -0.2893990236599926,
                            0.05650353717807802,
                            -0.04471057052644952,
                            0.20074991965456418,
                            -0.18949100221835613,
                            0.0986910849788194,
                            0.14109680630690136,
                            -0.12882044689138064,
                            0.2793896246883777,
                            -0.16930603079747372,
                            0.1155093797117603,
                            -0.267529732630011,
                            -0.26688600016661,
                            -0.16077754346574727,
                            -0.20442353954070752,
                            -0.08971772265410918,
                            0.10890964143934394,
                            0.09119103697780157,
                            -0.4724801254715508,
                            -0.06908985627922376,
                            0.06764678230887114,
                            -0.28042487345693834,
                            -0.18204775179070054,
                            0.02797762164789292,
                            0.01990916161169651,
                            -0.08111009528666074,
                            -0.07689532376488666,
                            0.12082502806394976,
                            0.10577433961697946,
                            0.3063423183426984,
                            0.19006416496069797,
                            -0.23041316620751962,
                            -0.24144114077773296,
                            -0.2263527202358055,
                            -0.10768422808418317,
                            -0.037420920224919364,
                            -0.04293117086995832,
                            0.16674711780604554,
                            -0.22454973128881262,
                            -0.11873921197505512,
                            -0.3862752617022068,
                            -0.07677870432521887,
                            0.030636198885699698,
                            0.04877515648501895,
                            -0.2893971553124728,
                            -0.4510403100097868,
                            -0.16408106710606365,
                            -0.5250239487731876,
                            -0.351986530430784,
                            -0.4460222251906688,
                            -0.24368465720538462,
                            -0.48664268993891874,
                            -0.4503631455874221,
                            -0.4526414569421392,
                            -0.34497214505834817,
                            -0.1434180252333623,
                            -0.23063347810391377,
                            0.19989530998073946,
                            0.15737622819556593,
                            -0.06221729235611418,
                            -0.08237908263057288,
                            -0.30050524362188963,
                            0.02127943536325028,
                            -0.026039484118883596,
                            0.028396093090390123,
                            0.08302160224272694,
                            0.15768160945380041,
                            -0.2979714718323564,
                            0.014353388112143536,
                            -0.05219431934379618,
                            -0.08318485091876408,
                            -0.2937377335978196,
                            -0.08644379302950438,
                            -0.1110249310632607,
                            0.1127835548765896,
                            -0.2780696610375842,
                            -0.2748030235333964,
                            -0.27588713848338103,
                            -0.20539224356084218,
                            -0.4313624317389678,
                            -0.24045140389672534,
                            -0.0066762366534472,
                            -0.05147797699504825,
                            -0.008222592447262757,
                            0.10964680528683898,
                            -0.13978344817511953,
                            -0.2140947077094118,
                            -0.09362249102732151,
                            -0.035381992701340535,
                            0.044917879133372106,
                            -0.26713444135882103,
                            -0.23401207227865434,
                            -0.2670228087717367,
                            -0.15649939067615015,
                            0.08597283442088653,
                            -0.1923016400071759,
                            0.0833847622423265,
                            -0.30669236020740304,
                            -0.13994069352376712,
                            -0.4237323684958162,
                            -0.13770200975750693,
                            -0.16532269881238043,
                            -0.189537764073732,
                            0.07425491168503465,
                            -0.3210835210268909,
                            0.127548209958575,
                            -0.3399351162547759,
                            -0.6755810411021245,
                            -0.26891327715905644,
                            -0.32003763153767195,
                            -0.3235162006883984,
                            0.13229982331882664,
                            0.08238721423556153,
                            0.12399541122971316,
                            -0.04617491881711251,
                            -0.17215538877496855,
                            0.19805460770725497,
                            -0.27090404948846303,
                            0.04828344695634674,
                            -0.010521744455794398,
                            -0.06828317476054457,
                            0.022128341565906123,
                            -0.026648232826363694,
                            -0.1787535470417768,
                            -0.17544105162209825,
                            -0.04868704457184889,
                            -0.2528834789477013,
                            -0.22899911007473656,
                            -0.05189345968766002,
                            -0.00310632131626392,
                            0.057447482862670075,
                            0.1892894149792664,
                            -0.2043552707327742,
                            -0.2586588438190118,
                            -0.4612559360116524,
                            -0.28252742425045274,
                            0.061209253997511724,
                            -0.22217239778564246,
                            -0.17362167280818952,
                            -0.19427733381465695,
                            -0.07656098963014436,
                            0.3910792659065771,
                            0.2646075408265697,
                            -0.23424445220303644,
                            -0.20390840084589357,
                            -0.27353484329856204,
                            -0.3073337084065704,
                            0.24299824892143618,
                            -0.09734089372955587,
                            -0.4337130729303487,
                            -0.308112069516852,
                            -0.30997397659822495,
                            -0.3808194160068303,
                            -0.3841262953593602,
                            -0.3294656418098,
                            -0.007209275228684107,
                            -0.06706046866885104,
                            -0.10407724578162914,
                            0.27267193643894405,
                            -0.053636441185087466,
                            -0.031219619443040834,
                            -0.23869343230505963,
                            -0.3767399805085737,
                            -0.35121448775989483,
                            -0.030038743532323057,
                            -0.13071954293515908,
                            0.1682168919390959,
                            0.020408251715277593,
                            0.14149789612028313,
                            0.03775392678606962,
                            -0.08407320092835412,
                            0.0007271354716176711,
                            0.29130751573172053,
                            0.013792054939863699,
                            -0.05076018632507809,
                            -0.23130573454804615,
                            -0.198097518316288,
                            -0.21081539121566836,
                            -0.3887660724095029,
                            -0.35474611377695076,
                            -0.20587388614637858,
                            -0.46608684489661834,
                            -0.26082649537809827,
                            -0.009886212340735669,
                            0.0017553752470911847,
                            0.08081822864902502,
                            -0.03633902440588671,
                            0.0590205413742418,
                            0.06546051806293973,
                            -0.28879664793817256,
                            -0.330521124436402,
                            -0.3521722450318186,
                            -0.2620880495053835,
                            0.1037200393482275,
                            -0.00437024677837504,
                            -0.046741796376894074,
                            -0.14845755827751864,
                            -0.24135501508536833,
                            -0.04508328058142364,
                            0.20021041412948423,
                            -0.1649894217461879,
                            0.09825063004377371,
                            -0.12671580998746457,
                            0.0741284692296662,
                            -0.24788585501015584,
                            -0.044436050487451625,
                            0.038035956302700714,
                            0.05128505646269408,
                            -0.004056738945300301,
                            0.056854483800926815,
                            0.20031533268382604,
                            -0.015043623458692503,
                            0.30451418486500026,
                            0.3265309817245314,
                            0.1450440194804508,
                            -0.10800700787972774,
                            -0.20553465898514028,
                            -0.04412152820525248,
                            -0.27947051458847044,
                            -0.0752051787462114,
                            -0.06280009588342508,
                            -0.18479610425537069,
                            0.3173851032636027,
                            -0.10986829497552124,
                            0.025983848035258685,
                            0.12651335270445188,
                            0.2736434708371358,
                            -0.1280307730151566,
                            0.11001022775617833,
                            -0.017440482217153042,
                            0.1489119927972077,
                            -0.07147535116045824,
                            0.022008609714275467,
                            -0.39336234342352105,
                            -0.15634548859392083,
                            -0.3302584241285616,
                            -0.006406156381153999,
                            -0.20924967889499238,
                            -0.049906021011343615,
                            0.31753031079570254,
                            0.09692718325134035,
                            -0.0977356036370323,
                            -0.08702699349041895,
                            -0.042966877563222775,
                            -0.16820134445935997,
                            -0.36067091166301246,
                            0.06256769918353447,
                            -0.31427579035434816,
                            -0.015186743978702642,
                            -0.0904266132930847,
                            0.1302012227913816,
                            0.2645649076067401,
                            0.3987355626098429,
                            -0.13903687464097034,
                            -0.014954955308583342,
                            0.2200287939333716,
                            0.03774269308167529,
                            -0.27940635857103724,
                            -0.08644268403203115,
                            -0.0737792449122983,
                            -0.21592298191887596,
                            -0.45592173806274944,
                            -0.17688776844146537,
                            -0.18636613526352092,
                            -0.06022411776241388,
                            0.2622657293277618,
                            0.2668509142166791,
                            -0.12436887155219974,
                            -0.05707790930061926,
                            0.2565674541208954,
                            0.2712599775351691,
                            0.19860461107529379,
                            -0.01823399050788777,
                            -0.31912372459604066,
                            -0.15680519799552897,
                            -0.15772751263207563,
                            0.09048016028843497,
                            -0.06625315306928725,
                            0.2297670695435588,
                            -0.07848856942478867,
                            0.006960495621508415,
                            0.1595413837966741,
                            0.20445624929958472,
                            0.005667619272951753,
                            0.20093933754651985,
                            -0.16285307992932255,
                            -0.1394269190365335,
                            -0.21513593953387855,
                            -0.2836449076371663,
                            -0.2663100352355514,
                            0.03557107979112976,
                            0.07707332212476872,
                            -0.09306323274863,
                            0.23032085221069093,
                            -0.0674389122195738,
                            0.23291269480082893,
                            0.051286166012573624,
                            0.22069588727383951,
                            0.31304229316439613,
                            -0.15606673710058985,
                            -0.15031754360966124,
                            -0.41785582951697997,
                            -0.2260481741357491,
                            0.09508679394287879,
                            -0.20519068130517656,
                            0.29949075766200534,
                            0.23438270529608035,
                            0.4311399487211846,
                            -0.05395155868554705,
                            -0.06575657541114992,
                            0.20520887930473244,
                            -0.15232003675721065,
                            -0.25470910869650076,
                            -0.09967651975463077,
                            0.15168560541780196,
                            0.03048805890791488,
                            -0.1615948785814583,
                            0.16997099908512622,
                            0.16248107080393184,
                            0.1288724988343708,
                            0.17590307680521292,
                            0.02863025527347846,
                            0.39180313934775673,
                            0.09261296195861052,
                            -0.03002496205204539,
                            0.18941699688730557,
                            0.47788818271930483,
                            0.04940465004366415,
                            -0.05562118996165324,
                            -0.15508515611555704,
                            -0.2472729428193508,
                            0.18106871200569719,
                            0.23687396381928286,
                            0.13465864008493408,
                            -0.08332683161278139,
                            0.11278540725245109,
                            0.39948227890084126,
                            0.2348872913725237,
                            0.008876508342815587,
                            -0.09623126012984323,
                            0.035145392505358,
                            0.01136723303451639,
                            0.09792392502638139,
                            0.15802873771989473,
                            0.028236059533842894,
                            0.1860582600152972,
                            -0.0228065669472777,
                            0.20465251689447175,
                            0.19865370211749098,
                            0.11647157578808137,
                            0.3148943938026173,
                            0.19667749306882132,
                            0.39455263189621126,
                            0.47632206140714495,
                            0.1329883668106536,
                            0.0769409387320659,
                            -0.42707446772839874,
                            0.04351715808323163,
                            -0.07980821508484875,
                            0.11171499279648445,
                            -0.22299323270888252,
                            0.2261738123766417,
                            0.30490100960481886,
                            0.014338789481333483,
                            0.14538587853889173,
                            -0.07803764469394081,
                            0.006918271185208617,
                            0.1056961008329049,
                            -0.19622121340795246,
                            -0.03196378463968834,
                            0.1560158167494853,
                            -0.09817559780147851,
                            0.18042213036674382,
                            -0.2191686112028892,
                            0.005767147641952408,
                            0.047469269551383746,
                            -0.05158707318854902,
                            0.4385126343760363,
                            0.2618419370986281,
                            0.5633729494449197,
                            0.6525764380184389,
                            0.7042827736061718,
                            0.5195721993095005,
                            0.0740316844615767,
                            0.22712234714997478,
                            0.1627673646344148,
                            -0.016849221289748414,
                            -0.02769403579080822,
                            0.007968329616996119,
                            -0.07474353613286411,
                            -0.21238538339593038,
                            0.3608883847038897,
                            0.19058115823545801,
                            0.0065514873889411795,
                            0.2815919479252873,
                            -0.09801281388443923,
                            0.09500406914591372,
                            0.015311700856495495,
                            0.1459885583381526,
                            -0.054379293570347334,
                            -0.1689855593551339,
                            0.19049183457899616,
                            -0.06755657526147721,
                            -0.08624409516673508,
                            -0.10291041329659449,
                            0.3572048152061417,
                            0.26631129352927585,
                            0.5804998174849767,
                            0.6235030141099576,
                            0.31990282372432843,
                            0.374384540188029,
                            -0.008485448887497195,
                            0.2967450930474591,
                            0.1987528634423555,
                            0.16231455207804088,
                            0.022016610510982422,
                            0.17915682642367822,
                            0.14692273950182325,
                            0.30726275762317434,
                            0.32814738801104715,
                            0.006636461715021398,
                            0.20008704410501368,
                            -0.00832679296059457,
                            -0.2510885543745299,
                            0.1894903775221032,
                            -0.23138480681712548,
                            -0.2052945229968317,
                            0.06231365692382078,
                            -0.1295949075519406,
                            0.22001058157340295,
                            -0.20870145294011752,
                            -0.24077923437364207,
                            0.14428164532735002,
                            -0.12484177498057115,
                            0.15873257509319627,
                            0.047416895798889656,
                            -0.1474970027814312,
                            0.0742804417727606,
                            0.04003910441327046,
                            -0.013161874326375923,
                            -0.021203656692515165,
                            -0.29751261175121013,
                            0.06780270318371487,
                            -0.19960927368101392,
                            0.053233447289751976,
                            -0.077763085146607,
                            -0.1703303234926323,
                            -0.14627504811052422,
                            0.13224548442043144,
                            0.21782452828843765,
                            -0.13332722030426042,
                            0.1936900162656579,
                            0.29729531580646373,
                            -0.2955401161886037,
                            -0.04113312802292262,
                            -0.23939002041813415,
                            -0.1672854471063845,
                            -0.1963799528021125,
                            -0.01735513899729861,
                            -0.09337612244115963,
                            0.05197301806140526,
                            0.04617450766336123,
                            -0.16934016540146504,
                            -0.17866887042156307,
                            -0.3403182392612207,
                            -0.43416111437464305,
                            -0.34421782422821273,
                            -0.45286087298784644,
                            -0.14515917862164848,
                            -0.4251152033805197,
                            -0.23160099934050113,
                            -0.0845407805900806,
                            -0.28844582859587914,
                            0.05287224272014481,
                            -0.011164359094868669,
                            -0.07038673305750907,
                            0.23940913482134232,
                            -0.23461164089304554,
                            0.24731898901340862,
                            0.1415230345893761,
                            0.14896407333252887,
                            -0.23095223984022906,
                            0.09952637392324729,
                            -0.243710941715268,
                            -0.10476577455372141,
                            -0.06065628152919263,
                            -0.21909254310318305,
                            -0.10261272174825886,
                            -0.08008521078060339,
                            -0.23240423934010287,
                            -0.11181920470961415,
                            -0.527010295965461,
                            -0.14822747263551145,
                            -0.4596284544673806,
                            -0.16304378313150708,
                            -0.200084688163236,
                            -0.3287727392054595,
                            -0.07124741034872473,
                            -0.3748876021442049,
                            0.005243965845244517,
                            0.010047138384997115,
                            -0.08303986119321313,
                            -0.33322594690666946,
                            0.030707735424765324,
                            -0.06291121941394534,
                            0.027817635822920732,
                            0.15376090207865892,
                            -0.11766555238406673,
                            -0.15162089777176557,
                            -0.026267263676537873,
                            0.21884549135299317,
                            -0.23323734912954971,
                            0.20909423080359976,
                            0.2029253427936662,
                            0.2412935578274953,
                            -0.23653253337756838,
                            0.17743999436379773,
                            -0.017152975619889918,
                            -0.0720666325932878,
                            -0.10616262221065588,
                            0.04930907265883924,
                            0.04543293208387929,
                            -0.23851883156141368,
                            0.10774747595071328,
                            -0.1325965229786434,
                            -0.20941992738163626,
                            -0.31109941324506013,
                            0.07029022641486607,
                            -0.16742379957552028,
                            0.16673264359034376,
                            -0.3032380773454238,
                            0.26467131767458085,
                            -0.047095346625964096,
                            0.2532132050506757,
                            -0.20654579686528926,
                            -0.13547330262338983,
                            -0.2551424325796928,
                            0.2702837024701234,
                            0.1484027805081567,
                            -0.2922834402804415,
                            0.2402637213053585,
                            -0.2043307320062165,
                            -0.08669849085448159,
                            -0.1814697490174835,
                            0.13776236725066804,
                            -0.1595983323554998,
                            -0.22322534398695515,
                            -0.3643285882730971,
                            -0.32388375886147985,
                            -0.3251185937594982,
                            0.028452736110249257,
                            -0.14835708880978357,
                            -0.2836274898994791,
                            -0.09205209928721055,
                            0.07565406128707552,
                            0.24631238760294333,
                            -0.15954388264653876,
                            -0.2603567468026208,
                            -0.21910840499066456,
                            -0.2584066998619852,
                            -0.18578491836801156,
                            -0.0964778212881146,
                            -0.08367783606392251,
                            -0.1638627463049592,
                            0.028372322544965932,
                            0.15552474423246165,
                            -0.21933405551358412,
                            -0.07618120352763254,
                            -0.027591190696057387,
                            0.08847500038895457,
                            -0.2154836985638218,
                            -0.08766509874666004,
                            -0.14707881659710065,
                            0.049179683198928584,
                            0.0028883574169988003,
                            0.25007102783435364,
                            0.16584952197473832,
                            -0.3142564909696326,
                            -0.0358884840373722,
                            -0.170991527847631,
                            0.23071351197583287,
                            0.08510235192985283,
                            0.23458298632525512,
                            0.0008297046171313442,
                            0.2761467801678168,
                            0.08706103295139188,
                            -0.06692580848023236,
                            0.12353847674986564,
                            0.1415201433982564,
                            -0.08903084263248662,
                            -0.19857106797412472,
                            0.22229611278733138,
                            0.25392751618483944,
                            -0.07993553472850298,
                            0.27302659380487804,
                            -0.19924035066269366,
                            -0.12496426408541252,
                            -0.13856775437866783,
                            -0.16301384155692505,
                            -0.00043950280502889205,
                            0.1665621252374029,
                            0.14436686253371078,
                            0.011326857966829204,
                            0.0062868809286549246,
                            -0.29365376253744424,
                            -0.14614532550422424,
                            0.28414525101490024,
                            -0.11774846494567182,
                            -0.08787135685618791,
                            -0.26453871020824044,
                            0.04402095319459681,
                            -0.1280042659088973,
                            0.03725073228367341,
                            0.16990932058344013,
                            0.12257075572032698,
                            -0.16316172371721163,
                            -0.048582266113208,
                            0.1380623850356893,
                            0.003011159468638145,
                            -0.2665867547841144
                        ]
                    },
                    {
                        "bias": 0.24504257808545296,
                        "weights": [
                            0.24504257808545296,
                            0.16374227733975452,
                            0.15673628949937612,
                            0.24334726529511336,
                            0.18087245652403164,
                            -0.2138591310081903,
                            -0.011108111324521967,
                            0.11191991854588436,
                            0.26015273492559393,
                            0.08572621290368332,
                            0.2826593505202624,
                            0.19333762945287028,
                            -0.1320264783268633,
                            -0.2602348382333948,
                            -0.21269035868080238,
                            0.09176296826461551,
                            0.25271164590238654,
                            0.2792659063499827,
                            0.25899660993306944,
                            -0.13479819649356864,
                            -0.13131118840853265,
                            0.16842889850934872,
                            0.1156410979279872,
                            -0.19909497639053397,
                            0.18733688579211213,
                            0.1614761108332815,
                            -0.27559861660695073,
                            -0.10280644930590298,
                            -0.004213497096689789,
                            0.21387815973817872,
                            0.16979654962190313,
                            0.14587122845163947,
                            -0.08273668248180097,
                            -0.25232886139565647,
                            0.004340078092470278,
                            0.15015150733296553,
                            0.020583307633729103,
                            0.21806237844494497,
                            0.26955638311009295,
                            0.1999680643633064,
                            0.16282179557172194,
                            0.07589669625177078,
                            0.14326012809599595,
                            0.23234243553653228,
                            -0.15139999712617877,
                            -0.016259280504286704,
                            -0.22300711452589958,
                            -0.027622869650228917,
                            -0.0770314698096701,
                            0.13116334764010926,
                            0.1880485703700355,
                            0.21124709026564387,
                            0.09986613620708587,
                            0.022931746376395636,
                            -0.1421162290817773,
                            -0.29550552400285807,
                            -0.08417579586397511,
                            0.0497853451192943,
                            0.16416418014683154,
                            -0.29123658757017423,
                            0.07400259094397237,
                            0.14332121955823512,
                            -0.20764769781874381,
                            -0.2501530613466794,
                            0.005809280504225803,
                            0.3618905702769795,
                            0.3175867803021697,
                            0.08428169589359569,
                            0.44152987613982386,
                            0.1657649342012809,
                            0.25594437948812176,
                            0.34384875929639513,
                            0.12267392935442759,
                            0.5109449944441459,
                            -0.02466751845663232,
                            -0.10549380978926959,
                            0.03306526308318533,
                            -0.12474079376514176,
                            -0.1838353844379596,
                            0.06972534829368317,
                            0.30041008787147633,
                            -0.018975386992543808,
                            0.18896557214818965,
                            0.03356267968830632,
                            0.0007522581114089556,
                            0.09264555516603999,
                            0.025708560158521177,
                            0.0351213405238331,
                            0.08597683852431484,
                            0.07715853674326305,
                            -0.03603910130680045,
                            0.19405772511587466,
                            0.18922506693918562,
                            -0.0748846232608113,
                            0.46957436730420826,
                            0.28622583995827533,
                            -0.11867675739822199,
                            0.4421958115769342,
                            0.36784920909032,
                            0.4808969597126581,
                            0.547909532498977,
                            0.4658016221657584,
                            0.1414816874959014,
                            0.43464882038967106,
                            0.07593376994103432,
                            0.31257414636500863,
                            0.05319045778961635,
                            0.20296879137796328,
                            0.13568388015376392,
                            0.2083130257519301,
                            0.09929760386485245,
                            -0.10892490312835637,
                            0.032039061268809836,
                            -0.27433753950013473,
                            -0.002710696288345493,
                            0.1724163777603213,
                            -0.24686940160215287,
                            0.11418820857027803,
                            -0.21903019561836826,
                            0.06168172398028917,
                            0.31482748701504076,
                            -0.04143804054842334,
                            0.06675942200259743,
                            0.2814156682659159,
                            0.13524472348883068,
                            0.13023688231043257,
                            0.3538977550005255,
                            0.2865763213261589,
                            0.5712877411686578,
                            0.23198600598510627,
                            0.4720678448389096,
                            0.5267569209371968,
                            0.06879789662845329,
                            0.26861162034416125,
                            0.31800252375765925,
                            0.12034087673482959,
                            0.2791821896427372,
                            -0.027087230770461976,
                            -0.3093375936489019,
                            -0.19225018659755438,
                            -0.22641561099200944,
                            -0.03521434868580459,
                            0.14268811611627324,
                            0.12123324030954921,
                            -0.2118093380901953,
                            -0.19983686341119244,
                            -0.2314184401219496,
                            0.006503406568314786,
                            0.01960506162440514,
                            -0.02869151070408373,
                            -0.038566415618106205,
                            -0.004885429517671194,
                            -0.18768375400334977,
                            -0.38671439842253436,
                            0.06110895954289256,
                            0.150890809015607,
                            -0.04793061697639657,
                            0.19488232179595155,
                            0.6291343953733344,
                            0.47171874201241304,
                            0.1575604562241613,
                            0.30714631112997093,
                            -0.011054304325670861,
                            0.1653710809546967,
                            0.1524606907677368,
                            -0.19977680514169344,
                            0.10348047323322056,
                            -0.04396655469625912,
                            0.19661110420901068,
                            -0.1899563569182266,
                            0.0963123423701622,
                            0.13408267557236586,
                            -0.13799734985393072,
                            0.2870295327564774,
                            -0.13626062357853863,
                            0.1594918402534469,
                            -0.21602985106801306,
                            -0.28908703138873454,
                            -0.3948398433528532,
                            -0.18260859223240083,
                            -0.15406319557662962,
                            -0.07828068823083072,
                            0.15603402728550586,
                            0.11762507781215822,
                            0.4940495982511079,
                            0.6157641875563232,
                            0.04011860095578276,
                            0.26351983945775,
                            0.24241776059650608,
                            0.10001848469757509,
                            0.15680324011451713,
                            0.10313444134653543,
                            0.06859465796290148,
                            0.12921126777439151,
                            0.3301226356203108,
                            0.1772660094053088,
                            -0.24699448805040689,
                            -0.24146274030379497,
                            -0.22486352700770845,
                            -0.11552722868233133,
                            -0.04995206685566856,
                            0.04736026897398758,
                            0.3145908098825987,
                            -0.06127396623234793,
                            0.10686219523654937,
                            -0.20622987545088767,
                            0.09419125094103807,
                            0.15215584976605676,
                            0.36280850497158373,
                            -0.05625353912729403,
                            -0.16723285286590356,
                            0.49177703507629006,
                            -0.14015125221629382,
                            -0.07587895137405254,
                            -0.43587276890713306,
                            0.03184878753442745,
                            -0.025793607818990903,
                            -0.21313114187605162,
                            -0.017739369244587775,
                            -0.056704795940651996,
                            -0.0710906222602613,
                            -0.16972667670543934,
                            0.2772965352669996,
                            0.1048142786619752,
                            -0.06635189208641129,
                            -0.08138138071895895,
                            -0.29414978542337666,
                            0.04055916210147225,
                            0.027889126462764827,
                            0.23422349682366508,
                            0.2562693581562223,
                            0.3325837684815824,
                            -0.12205307652683144,
                            0.19231726094532076,
                            0.23560368146844002,
                            0.301305031764779,
                            -0.02532765370590511,
                            0.14506519701135895,
                            0.18249021096797627,
                            0.42987485383660357,
                            -0.20314085245669897,
                            -0.31806558068385576,
                            -0.33492025853900015,
                            0.1048332222467081,
                            0.3113189622672383,
                            0.14670593896992115,
                            0.3282765520881195,
                            -0.005246446962252586,
                            -0.07401545813456899,
                            -0.04203283223412494,
                            -0.09429498027765539,
                            -0.18006360723074957,
                            -0.09457951718554225,
                            -0.037226579586059544,
                            0.04817402508809188,
                            -0.23604129406023155,
                            -0.15041265615469882,
                            -0.11506537969567389,
                            -0.05464353772796732,
                            0.13845552577985104,
                            -0.13237383592949975,
                            0.2999498275967843,
                            0.09106118089319781,
                            0.34350449781836945,
                            -0.3237479557299121,
                            -0.420843422319284,
                            -0.08536956636407697,
                            -0.03541443079084885,
                            0.06407751189336472,
                            -0.5722247849752232,
                            0.3430161700202555,
                            0.3622896908506455,
                            0.08797367677055858,
                            0.2035427312496299,
                            -0.045260258031465314,
                            -0.42946024816403555,
                            -0.16089564701715187,
                            -0.0714663976966875,
                            0.1127084563209181,
                            -0.10497561317471138,
                            -0.16467058214640629,
                            0.20077732635972295,
                            -0.2579060465519321,
                            0.07879147183154861,
                            0.05986913097472839,
                            -0.03579539468917237,
                            0.11121322892665546,
                            -0.01324993605702318,
                            -0.02416957319371663,
                            -0.013777515633887577,
                            0.15891119557138642,
                            0.1617786748700584,
                            -0.15709622107368973,
                            -0.0029111102663868698,
                            0.276069070500182,
                            0.18140487619508133,
                            -0.022710611436731885,
                            -0.3212999727923832,
                            0.4576932369689582,
                            0.501407962320684,
                            0.4041794932853192,
                            0.49561661493856324,
                            -0.12185581741557681,
                            -0.3720513787962483,
                            -0.3465842579330106,
                            -0.27455210269132624,
                            0.27109396199256863,
                            0.2328987585176328,
                            -0.23377146441951993,
                            -0.20814703454983413,
                            -0.25107915990994273,
                            -0.23132154200182556,
                            0.2972115813556552,
                            0.002066824901508725,
                            -0.3137891030072712,
                            -0.2519949562323831,
                            -0.1207253984852821,
                            -0.18561297387972983,
                            -0.2109631357848747,
                            -0.18785461656672514,
                            0.21379425630181761,
                            0.49579195240743973,
                            0.3518843317055391,
                            0.4644237640736709,
                            -0.6259534744350811,
                            0.00379898713119629,
                            0.7558491907163241,
                            0.738117417732231,
                            0.05439971479280166,
                            0.043206992825857944,
                            -0.1741304334861563,
                            0.008203632534145439,
                            -0.011660573388724381,
                            -0.001540272409102598,
                            -0.026955600386056423,
                            -0.06328891343661072,
                            -0.007346399167018491,
                            0.2916551631204249,
                            0.02896639059113118,
                            0.05268898480811532,
                            -0.147881585990305,
                            -0.05645668210716134,
                            -0.15692396241304643,
                            -0.22227665609264227,
                            -0.12619096065672655,
                            -0.3362774184577859,
                            -0.5347675185307537,
                            -0.3143360301000515,
                            0.23249643963160585,
                            0.23687669071273984,
                            0.132806705376638,
                            -0.09710188863282668,
                            -0.4748422611759681,
                            -0.09421523296428876,
                            0.567596301415343,
                            0.1538562476386286,
                            -0.3205105108820205,
                            -0.07255976536212456,
                            0.05284662310479597,
                            -0.1848803214516616,
                            -0.03150259260488947,
                            -0.15308601513240744,
                            -0.25207166473257725,
                            -0.04934669428854369,
                            0.19419999286338724,
                            -0.16477388668543874,
                            0.10865037103486426,
                            -0.06527839535813248,
                            0.20808570232859458,
                            -0.0680185295211836,
                            0.1096801907458774,
                            0.10252865380516261,
                            0.15797353744618045,
                            -0.09736006712942107,
                            -0.15905706030319786,
                            -0.057649145421571873,
                            -0.3186624477741199,
                            0.2874407613357974,
                            0.5121013054197601,
                            0.19347852012278619,
                            -0.24202383930671742,
                            0.12310272732686886,
                            0.6486644736992097,
                            -0.47785951708559915,
                            -0.24669099843703013,
                            -0.09121061504146157,
                            -0.25835018302779617,
                            0.13065958099493782,
                            -0.12251167309802469,
                            0.033207664704655575,
                            0.06597896243948731,
                            0.2529649326254179,
                            -0.12682920473947978,
                            0.11289835855776181,
                            -0.012393547443035658,
                            0.16841028671127745,
                            0.06279497038503039,
                            0.19915486323655093,
                            -0.14565160248889006,
                            -0.007451345392050211,
                            -0.4208262020661621,
                            0.11483707232835454,
                            -0.03994658690995317,
                            -0.16091933723885912,
                            -0.27877931030300707,
                            0.008394426456102855,
                            0.5060950367838517,
                            0.3127905755103319,
                            0.15118349563645803,
                            0.19812920781534407,
                            0.018261424045656192,
                            -0.18723373684547193,
                            -0.33821434787377563,
                            -0.026417537339549248,
                            -0.23417944272954988,
                            -0.03561466606247814,
                            0.14174248690142452,
                            0.3615869302011572,
                            -0.11818569330839808,
                            -0.015524107651370614,
                            0.2173684382958884,
                            0.038910245039078285,
                            -0.2809068139476875,
                            -0.0823711607864949,
                            -0.028177937949694847,
                            -0.13680533807929604,
                            -0.18641559245501918,
                            0.1293517630543626,
                            -0.055770664901079195,
                            0.07206781044300874,
                            0.30450602969320106,
                            0.004750368761732419,
                            -0.7170432554882519,
                            -0.17865773464889168,
                            0.5659349839810626,
                            0.39076061795383105,
                            0.14115303762738113,
                            0.25963804355982434,
                            -0.13531769496304988,
                            -0.024713482525775016,
                            -0.07818408874644543,
                            -0.13886005649492292,
                            -0.1877795504899589,
                            -0.09740053832394614,
                            -0.2907225004645425,
                            -0.016829464802507476,
                            0.17980678058553795,
                            0.16837611954525578,
                            4.819867987576029e-05,
                            0.2021267120669567,
                            -0.15963301436442245,
                            -0.14318884342948754,
                            -0.29809226363102664,
                            -0.26346078293325514,
                            -0.14885234228216251,
                            0.2152319566526207,
                            0.2821906676045044,
                            0.09427888467741548,
                            0.13944655966272834,
                            -0.2625416048727675,
                            -0.17648196946074948,
                            -0.4297925473744226,
                            -0.2975554973671466,
                            0.12281010700427256,
                            -0.2710143808943162,
                            0.3662884103066552,
                            -0.07626915706561206,
                            -0.1757522598746955,
                            0.0686365262349115,
                            -0.48260941566299365,
                            0.10153491922242142,
                            0.023210133590067867,
                            0.20328745938126963,
                            -0.06397300462535302,
                            0.04511320222599902,
                            0.23304687450181538,
                            -0.1557205355451898,
                            -0.2533748812005149,
                            -0.09952434931756067,
                            0.13118813211034766,
                            -0.021501452527335967,
                            -0.17204401952391998,
                            0.12108712058729387,
                            0.301460434861328,
                            0.3040447237463374,
                            0.30582520811897324,
                            -0.1322907373422879,
                            0.10572429710986911,
                            -0.5400296614488371,
                            -0.330444614620065,
                            -0.4271665353867776,
                            -0.1445910302437326,
                            0.14798821510394314,
                            0.4633195423363588,
                            0.32010024014773814,
                            -0.27113237544368746,
                            -0.19512514344329238,
                            -0.029007826606543656,
                            -0.07313566094672683,
                            -0.1867920695922509,
                            0.05018166585439708,
                            0.40726160920642235,
                            0.34707647286278104,
                            0.016946783872221222,
                            -0.10512985918131289,
                            0.04064369995278284,
                            0.004918955856910186,
                            0.08067508952067104,
                            0.15661897907463218,
                            0.03825971360749527,
                            0.12438964343309393,
                            0.13186154865070387,
                            0.2236063288620853,
                            -0.005972546247361474,
                            -0.1320641850833322,
                            -0.13507168415928061,
                            -0.0974176046535365,
                            -0.3222199425792529,
                            -0.425185295293641,
                            -0.6574962688898071,
                            0.08426409755668364,
                            -0.05973575715904245,
                            0.3839962062368195,
                            0.07588191305078017,
                            0.12434155448533779,
                            -0.07423934736562729,
                            0.22785380181080847,
                            0.2549351207752652,
                            0.07381761497734518,
                            0.23486774686526188,
                            0.03175187579134933,
                            -0.004186970231420495,
                            0.09872389333188562,
                            -0.19844895781031152,
                            -0.033861275411815446,
                            0.15007889896529744,
                            -0.053620502817712856,
                            0.29539105461151605,
                            -0.09054648406395525,
                            0.26770323561008036,
                            0.14760467978429448,
                            -0.1452842655971424,
                            0.28300325070372717,
                            -0.018547530113923464,
                            0.07217206237194959,
                            -0.4190055921533525,
                            -0.3202807719686492,
                            -0.2813476057577015,
                            -0.15812578387623272,
                            0.11826189778448981,
                            0.14137167915252608,
                            -0.11153605704731186,
                            0.03572472120956816,
                            0.1106492459466947,
                            -0.20269308906272676,
                            -0.26317456159543645,
                            0.4487668453514675,
                            0.2647566653819975,
                            0.07929562357141982,
                            0.29216165780388337,
                            -0.10126556696135278,
                            0.09737719950703938,
                            0.021510580082866004,
                            0.14036384790124154,
                            -0.03849546308599776,
                            -0.04027419708378679,
                            0.4034698675268027,
                            0.2903366950514147,
                            0.14369803561231195,
                            -0.1545237236230496,
                            0.3285733148596489,
                            -0.23756843284610432,
                            0.0045706465778869556,
                            -0.0855775750551614,
                            0.09778249209253781,
                            0.2650756043735141,
                            -0.3922907111811046,
                            0.05784568587043043,
                            -0.08519100344408746,
                            -0.009683032318207045,
                            -0.010390449072371796,
                            0.11257618099543856,
                            0.05654133628275439,
                            0.12648516436233473,
                            0.2574951487572318,
                            0.003276881699519042,
                            0.23367162580868805,
                            0.005239565625975821,
                            -0.24987619175503753,
                            0.18873504135065095,
                            -0.2381323258808112,
                            -0.18936904426130588,
                            0.08052968279417863,
                            -0.07312210307304041,
                            0.2798951638098356,
                            0.0680049657436848,
                            -0.11810546827136796,
                            0.2658332287358929,
                            -0.015927362306972406,
                            -0.09981707782092826,
                            -0.042704807642183956,
                            0.007578794520449677,
                            0.5415580694438107,
                            0.15490714882105,
                            -0.28981562365124786,
                            -0.2333054903029675,
                            -0.6012159500590599,
                            0.03150097325310253,
                            -0.2729520717376814,
                            0.20336457425258642,
                            0.0004073020383669166,
                            -0.2600727793096942,
                            -0.28609832369304655,
                            0.11117933008965161,
                            0.22418178865179006,
                            -0.13219356242388397,
                            0.19318550268788098,
                            0.2963886239750099,
                            -0.2953468042221991,
                            -0.031201882570824877,
                            -0.2350463366564368,
                            -0.18400965437366837,
                            -0.22048415498948273,
                            0.17872079779213815,
                            0.18304173496730672,
                            0.2669002725382567,
                            0.33314865258886994,
                            -0.012652882379261121,
                            0.18181048032698827,
                            0.12665209748861594,
                            0.3968156406031434,
                            0.038753242410567226,
                            -0.34801412475284504,
                            0.02254687229211885,
                            -0.15334023733950014,
                            0.019882108800413887,
                            0.0375055804247045,
                            -0.10310552144225052,
                            0.048014964439261884,
                            -0.019037222227910412,
                            -0.20607198790309963,
                            0.19134884277206368,
                            -0.25169906079048654,
                            0.24468407634577652,
                            0.14262968816080465,
                            0.1482759444410852,
                            -0.22880715577409239,
                            0.09964242547076917,
                            -0.2528763630577713,
                            -0.09715088217956867,
                            -0.07640971901459606,
                            -0.18808466163220144,
                            0.055177082641449667,
                            0.12884638371327267,
                            -0.09528487932637471,
                            0.2980649555559118,
                            -0.060366485393664286,
                            0.2844764378597354,
                            -0.22559076017416455,
                            0.27620088382878,
                            0.16494235987286104,
                            -0.04076380036762972,
                            0.250554927787792,
                            -0.26439361533457406,
                            0.1064641165152466,
                            0.14601611957340088,
                            0.010663663690045481,
                            -0.22339854652349364,
                            0.021378151155159814,
                            -0.09428897800178275,
                            0.0068227197017745765,
                            0.14645169996619722,
                            -0.11644540820175084,
                            -0.15234412728251517,
                            -0.023878153808776028,
                            0.21839551704591664,
                            -0.23560040575718547,
                            0.24965829420795443,
                            0.2720243228357281,
                            0.2993994608624384,
                            -0.01590948239200158,
                            0.45406405034312175,
                            -0.00439236766904206,
                            -0.03360134233236701,
                            -0.20428066494984606,
                            0.01273898539945748,
                            -0.1688240095177416,
                            -0.12014931120077531,
                            0.47608032683891116,
                            0.1737635221336922,
                            0.3086804234885278,
                            0.1803702519195358,
                            0.33814718489701207,
                            0.1363753281898162,
                            0.42586998596318193,
                            -0.09288148721056562,
                            0.33637822968010817,
                            -0.03490190362480546,
                            0.25109760509487317,
                            -0.20561591423932682,
                            -0.13527796722007024,
                            -0.25232075943191107,
                            0.2693800944039717,
                            0.14956619055962514,
                            -0.28062810954665124,
                            0.29434218390633704,
                            -0.13591219350651876,
                            0.011298377320791718,
                            -0.05344526083333656,
                            0.3164995756413754,
                            -0.06632607930554073,
                            -0.24476611540363377,
                            -0.18573739933231934,
                            -0.0849866390184676,
                            0.017703639757344895,
                            0.401075729369804,
                            0.005750232198169955,
                            -0.006725913691495916,
                            0.22329754709263197,
                            0.3190296303972675,
                            0.4479796173848394,
                            0.04754488582093925,
                            -0.031187515272936134,
                            -0.05559222143968454,
                            -0.2154331379403859,
                            -0.1807188556742855,
                            -0.09581514697324191,
                            -0.08285947560648141,
                            -0.1638970686349681,
                            0.029345201298022358,
                            0.15646914978572138,
                            -0.21808115235462516,
                            -0.07477390441488523,
                            -0.021459400957069975,
                            0.08848409571869416,
                            -0.17386751531119518,
                            -0.04133949630099023,
                            -0.045233102444097006,
                            0.1930217895921607,
                            0.1467382381482744,
                            0.41714925097035316,
                            0.4279561244656736,
                            -0.03863583362326622,
                            0.3186870352067437,
                            0.1486129504886343,
                            0.4715120120487922,
                            0.2606433377278874,
                            0.32512536750580173,
                            0.13691506707612128,
                            0.43371522784678485,
                            0.17743437065144915,
                            -0.030494640434955842,
                            0.13690516512726722,
                            0.14188934722931199,
                            -0.08861038701847666,
                            -0.1985263974527327,
                            0.2222856293860478,
                            0.2544598749779619,
                            -0.08001893632140841,
                            0.2729237093145693,
                            -0.19940047863050145,
                            -0.12259991288913474,
                            -0.1336442040686658,
                            -0.15891412056171533,
                            0.014645338686374968,
                            0.18370331650589766,
                            0.15865512921633462,
                            0.017731328047737634,
                            0.03322993765110849,
                            -0.24109572763938691,
                            -0.09607081155714262,
                            0.3396378850278416,
                            -0.08650017816215416,
                            -0.03708299464518329,
                            -0.2127840770099025,
                            0.07766216817995598,
                            -0.10964455523474274,
                            0.0487042563888371,
                            0.18232855464281278,
                            0.13193109281457757,
                            -0.16330593318748335,
                            -0.04825120278609618,
                            0.137939291914214,
                            0.003187773153780112,
                            -0.2662457098905376
                        ]
                    },
                    {
                        "bias": -0.025952612739658265,
                        "weights": [
                            -0.025952612739658265,
                            0.1648634548013917,
                            0.1575134422818765,
                            0.24348546162800633,
                            0.1802710121314007,
                            -0.21111612502251148,
                            -0.008847354336895298,
                            0.11022141824522831,
                            0.26006932399677807,
                            0.08900481161277143,
                            0.2779158987594381,
                            0.1878010466651741,
                            -0.12439622733021127,
                            -0.2667443186256129,
                            -0.21646268279020547,
                            0.0904166535299755,
                            0.25493650674208873,
                            0.28250622781115103,
                            0.26041801497901995,
                            -0.13589887246999904,
                            -0.12608710119444386,
                            0.1685905451230902,
                            0.11105571378614577,
                            -0.18482116830833067,
                            0.18727398009805102,
                            0.16124575083610637,
                            -0.2766771481016216,
                            -0.10331644952124865,
                            -0.0028662846090450698,
                            0.21401349105815834,
                            0.17000085224760783,
                            0.1499152915025868,
                            -0.081658463971471,
                            -0.25460188244890797,
                            0.006720780851185793,
                            0.14221900867416162,
                            0.0025904305238804827,
                            0.19169455896339216,
                            0.25890326273711856,
                            0.1795771096812362,
                            0.13114599330791432,
                            0.057827955545899715,
                            0.12378695331568548,
                            0.2414360798888278,
                            -0.136049950407202,
                            -0.008406002213782697,
                            -0.22644295319214092,
                            -0.038123006403408224,
                            -0.08191370235856413,
                            0.13687849489875495,
                            0.19065004908062586,
                            0.1948062404482523,
                            0.09572394191424413,
                            0.0235859913075441,
                            -0.1419437331494536,
                            -0.2969356943100525,
                            -0.08560560348438258,
                            0.05170263215672012,
                            0.16579399358331762,
                            -0.2927512276169665,
                            0.07237789133492419,
                            0.1475755695166444,
                            -0.20685075921759205,
                            -0.2699205979239751,
                            -0.04099436159863237,
                            0.31613172038497844,
                            0.2488724832944855,
                            -0.04753789374085987,
                            0.3425136645686104,
                            0.04463404080479946,
                            0.07625074735719953,
                            0.24156776558719661,
                            0.13033534412035586,
                            0.4265091389722918,
                            -0.1526558856146022,
                            -0.167464928501071,
                            0.021192470934069063,
                            -0.12061754136104114,
                            -0.18386041828067218,
                            0.05230288154817945,
                            0.3048451756828619,
                            -0.02057920143046418,
                            0.1881337594454016,
                            0.034578224654512976,
                            -0.0007538962501956672,
                            0.09162454063646096,
                            0.028651065217369303,
                            0.03637529015874249,
                            0.0805237329681006,
                            0.07089951910750115,
                            -0.05524376399955148,
                            0.10369999021508365,
                            0.08945004050275557,
                            -0.20767073054712382,
                            0.2588006689529211,
                            -0.021696658180125544,
                            -0.452078170747337,
                            0.01892514442185465,
                            -0.13989067115150491,
                            0.00272189273631099,
                            0.21169845711682483,
                            0.25726689716621587,
                            -0.2174816792834546,
                            0.14478142318263335,
                            -0.04324503684259611,
                            0.14170074161458668,
                            -0.1263448163840046,
                            0.08044391853388622,
                            0.08809729580477724,
                            0.2175951654898655,
                            0.09301377225360116,
                            -0.11249310410901632,
                            0.03330763737170803,
                            -0.2742046528606905,
                            -0.0028081319094368073,
                            0.17371314817769368,
                            -0.24518143961354683,
                            0.12431571924166539,
                            -0.24990185949999538,
                            -0.028441413265220095,
                            0.1814901020779401,
                            -0.22241246919474314,
                            -0.14795195733913263,
                            -0.05655648454266806,
                            -0.230504999712882,
                            -0.22046175528673528,
                            -0.09870679135623127,
                            -0.3781397207654996,
                            -0.13683267115946088,
                            -0.1859539222233867,
                            0.18181323492129114,
                            0.29628129910987433,
                            -0.041544558372224365,
                            0.1537484508418942,
                            0.14465333285314474,
                            0.07944815250599069,
                            0.20890753395399256,
                            -0.09847135205491393,
                            -0.32205777006871483,
                            -0.18396431947597935,
                            -0.22059466606775816,
                            -0.03496490139429398,
                            0.14493533897148272,
                            0.12101615873172178,
                            -0.20165110076726284,
                            -0.13575607344098373,
                            -0.18932191582899507,
                            0.03772972663575884,
                            -0.022876343632294766,
                            -0.11424544100721294,
                            -0.10458714672099725,
                            -0.17211474340292687,
                            -0.14580305111985847,
                            -0.2547235927462984,
                            -0.007957646606002157,
                            -0.139609201663772,
                            -0.44519032628587135,
                            -0.31079273597963497,
                            0.032604530989938096,
                            0.04140192940392357,
                            -0.10379941468265586,
                            0.05013929969126895,
                            -0.13819465045374546,
                            0.1241525609397726,
                            0.12413280172613178,
                            -0.261629446633812,
                            0.06263550014038938,
                            -0.047647111297768066,
                            0.2009859616806989,
                            -0.18690637250737147,
                            0.09971584682030141,
                            0.13574668986355715,
                            -0.10834636570714293,
                            0.3369639085103573,
                            -0.19068798152362357,
                            0.03488154718512147,
                            -0.3615573895537282,
                            -0.30370215946351625,
                            -0.1917473907747711,
                            -0.2827982367811302,
                            -0.06155055395635653,
                            0.07554327287972043,
                            0.05406847021852397,
                            -0.06152079717311855,
                            0.40022215221112434,
                            0.20645166337938195,
                            -0.028993477485580395,
                            0.11842762279284356,
                            0.29301598960782355,
                            0.32714647682061493,
                            0.05842625005682296,
                            0.07983453568051595,
                            0.17164501748164865,
                            0.04501521631276967,
                            0.21333390218228743,
                            0.13603022555628186,
                            -0.22965897159003526,
                            -0.2407230493243859,
                            -0.22753179760676795,
                            -0.1373808557694095,
                            -0.026549061855979793,
                            0.013160525868527109,
                            0.13818879743953194,
                            -0.36906869903521194,
                            -0.13220854678687435,
                            -0.41976535061424086,
                            0.06905883668582728,
                            0.15031090025774976,
                            0.13990383847115517,
                            -0.18754150009146156,
                            -0.2548930129047366,
                            0.3391031591724842,
                            0.013892790469471094,
                            -0.12119313494984069,
                            -0.1489936482745654,
                            0.11647090698353998,
                            0.022283941721726406,
                            -0.05976732478734897,
                            -0.07176709145192864,
                            -0.17528416144960202,
                            -0.10065668273800411,
                            -0.31415264181005076,
                            0.10319830965264565,
                            0.12224449057751037,
                            -0.06201279411978145,
                            -0.08035897072890544,
                            -0.2921435519451597,
                            0.015535641943128897,
                            -0.021655382119523527,
                            0.10384789903235521,
                            0.14967119466780998,
                            0.17839452900608382,
                            -0.12080996697073945,
                            0.28151572234391825,
                            0.30497548559144483,
                            0.18718688597519478,
                            -0.16628286685815374,
                            0.3530545149835071,
                            0.22333781518321344,
                            0.7551711731263216,
                            0.39331224346016136,
                            0.0868929881467646,
                            -0.08155291744829758,
                            0.11707720589807322,
                            -0.11898608618095509,
                            0.14696583719185963,
                            0.42297110939452787,
                            0.182944087124923,
                            0.03394007685361335,
                            0.010528511179212616,
                            -0.17856301095895852,
                            -0.18527516971698726,
                            -0.09270548595539413,
                            -0.03479584776297399,
                            0.05135849243218155,
                            -0.24900832833694872,
                            -0.19827986236362954,
                            -0.11794476410093317,
                            0.01508514250382684,
                            0.3197597833375876,
                            0.14614294613081188,
                            0.374596713311898,
                            0.1196228077926605,
                            0.10989862916559785,
                            -0.33576373313119423,
                            0.17954180784605495,
                            -0.00020713359076919512,
                            -0.014651538417451019,
                            0.39209098735110376,
                            -0.23358017964152422,
                            0.1942077991353773,
                            0.02995742903106596,
                            -0.2767113241221967,
                            0.14420930262322787,
                            0.1812908261621286,
                            -0.0027182914868693494,
                            0.2810914641406526,
                            0.01695025390759072,
                            0.0301646153025755,
                            -0.08018979504451218,
                            -0.1539438235920963,
                            0.1996444901809821,
                            -0.26141604573840027,
                            0.08736669575351552,
                            0.07365977316618974,
                            0.14464022939283414,
                            0.32652485801344977,
                            0.34675223912257647,
                            0.13114756491937285,
                            0.017445850370340407,
                            0.3151937461144434,
                            -0.08535915282990268,
                            -0.14722137588417455,
                            -0.15660865053631687,
                            -0.3188323072017968,
                            0.07966010707791304,
                            0.5196341875772588,
                            -0.2959985321304954,
                            -0.3701461391610367,
                            -0.05393297692739309,
                            0.048647803973531606,
                            0.28521886464756224,
                            -0.08659116061847788,
                            0.005400479321059722,
                            -0.043047393911211325,
                            -0.0780389701087478,
                            0.22505349518314252,
                            0.17540003574786353,
                            -0.2324612865862395,
                            -0.20192333735307014,
                            -0.2470560694661223,
                            -0.2543391645972661,
                            0.3412947048917921,
                            0.19939198158808766,
                            -0.0002667014108461816,
                            0.21040748969885192,
                            0.03096167588813054,
                            -0.004260082571554014,
                            0.2518831370303079,
                            0.037361759792809514,
                            0.16344823263737315,
                            -0.40218267800128604,
                            -0.45242838473791674,
                            0.165683283785438,
                            0.06192710649304867,
                            -0.15870788789951895,
                            -0.34504365942582693,
                            -0.06647211676961941,
                            -0.04446913498512325,
                            0.03352978224943125,
                            -0.1289916098240809,
                            0.2166041715283877,
                            0.06147056491728209,
                            0.027892647993497527,
                            -0.13097223716643502,
                            -0.16037969005323305,
                            -0.00504546015435675,
                            0.2945261686144069,
                            0.02497211876805948,
                            0.004282350133308234,
                            -0.15100255232819654,
                            0.08461786559508223,
                            0.23963260124645308,
                            0.19639596296485853,
                            0.15541789749008342,
                            0.4339002364662718,
                            0.3842864554980227,
                            0.19636395148612423,
                            0.033207636584750004,
                            -0.4439782107154522,
                            -0.5713334521768162,
                            -0.24536833826755902,
                            -0.03865238802296859,
                            0.07879290594673075,
                            -0.2415219634438029,
                            0.17836937098189412,
                            -0.1335151203479478,
                            -0.1496662676095202,
                            0.10405920550610871,
                            0.03686738139860718,
                            0.10916981049039438,
                            -0.046516690018883394,
                            -0.278169179911917,
                            -0.07569521616999209,
                            0.19915133174368432,
                            -0.16504408417141891,
                            0.10314387405384726,
                            -0.0912623380616564,
                            0.1491183545800111,
                            -0.03580301521386625,
                            0.3674431013608756,
                            0.5648003232474946,
                            0.47422935694417606,
                            0.446639877848141,
                            0.7653120967446071,
                            0.6693926508755813,
                            -0.030054328726036805,
                            -0.07262589008763605,
                            -0.0007781014726661692,
                            -0.14175949631678814,
                            -0.260841219159158,
                            -0.17821981242066365,
                            0.27222558504960725,
                            0.001460880789024457,
                            -0.021588125590120955,
                            -0.12971574361146684,
                            -0.26251932612498907,
                            0.20829634797073127,
                            0.042410477322023674,
                            0.11461861867848143,
                            0.1468038479053354,
                            0.2582913731481127,
                            -0.12465930008469917,
                            0.1101128017895273,
                            -0.010957352812719603,
                            0.16012029295998806,
                            -0.03506301537257309,
                            0.08585701696339415,
                            -0.05350449226398372,
                            0.2687258052448104,
                            -0.02470400940083001,
                            0.3254021827165877,
                            0.2021619493927849,
                            0.2622220136372333,
                            0.6068112988902493,
                            0.4754370203364142,
                            0.1953079398685127,
                            -0.06370302145020826,
                            -0.20002307229869498,
                            -0.04622482760431128,
                            -0.0202654418947013,
                            0.1748565209423056,
                            -0.17040256179788646,
                            0.1472775906687591,
                            -0.0416560276418899,
                            0.020506977961306322,
                            0.277641692255047,
                            0.39554586016824894,
                            -0.1489840515048906,
                            -0.02928247733491653,
                            0.22111941955914424,
                            0.04114817361303399,
                            -0.2802151946074071,
                            -0.0821375466978952,
                            -0.07504500267849341,
                            -0.2589863618083667,
                            -0.22098159857187283,
                            0.0805073258273115,
                            -0.0867470584419673,
                            -0.03926666887980992,
                            0.2872183148982504,
                            0.5053962328284699,
                            0.40594609495962086,
                            0.536848531362214,
                            0.8450088935159018,
                            0.6219028496756575,
                            0.14151855379439554,
                            0.07362041434885068,
                            -0.01800923737814666,
                            0.1962720854477928,
                            0.2094899114565288,
                            0.3542361217645264,
                            0.09115817826106719,
                            0.17336643355634287,
                            -0.24448579553555408,
